digraph Tree {
node [shape=box] ;
0 [label="X[4] <= 0.0\ngini = 0.216\nsamples = 702439\nvalue = [615796, 86643]"] ;
1 [label="X[2] <= 11.5\ngini = 0.192\nsamples = 376818\nvalue = [336345, 40473]"] ;
0 -> 1 [labeldistance=2.5, labelangle=45, headlabel="True"] ;
2 [label="X[1] <= 0.5\ngini = 0.196\nsamples = 362523\nvalue = [322693, 39830]"] ;
1 -> 2 ;
3 [label="X[2] <= 1.5\ngini = 0.244\nsamples = 38933\nvalue = [33400, 5533]"] ;
2 -> 3 ;
4 [label="X[2] <= 0.5\ngini = 0.209\nsamples = 13493\nvalue = [11892, 1601]"] ;
3 -> 4 ;
5 [label="X[0] <= 3.5\ngini = 0.283\nsamples = 8552\nvalue = [7094, 1458]"] ;
4 -> 5 ;
6 [label="gini = 0.301\nsamples = 4674\nvalue = [3813, 861]"] ;
5 -> 6 ;
7 [label="gini = 0.26\nsamples = 3878\nvalue = [3281, 597]"] ;
5 -> 7 ;
8 [label="X[3] <= 6.5\ngini = 0.056\nsamples = 4941\nvalue = [4798, 143]"] ;
4 -> 8 ;
9 [label="gini = 0.066\nsamples = 2398\nvalue = [2316, 82]"] ;
8 -> 9 ;
10 [label="gini = 0.047\nsamples = 2543\nvalue = [2482, 61]"] ;
8 -> 10 ;
11 [label="X[2] <= 7.5\ngini = 0.261\nsamples = 25440\nvalue = [21508, 3932]"] ;
3 -> 11 ;
12 [label="X[2] <= 4.5\ngini = 0.476\nsamples = 1209\nvalue = [738, 471]"] ;
11 -> 12 ;
13 [label="gini = 0.497\nsamples = 597\nvalue = [320, 277]"] ;
12 -> 13 ;
14 [label="gini = 0.433\nsamples = 612\nvalue = [418, 194]"] ;
12 -> 14 ;
15 [label="X[2] <= 10.5\ngini = 0.245\nsamples = 24231\nvalue = [20770, 3461]"] ;
11 -> 15 ;
16 [label="gini = 0.029\nsamples = 1930\nvalue = [1902, 28]"] ;
15 -> 16 ;
17 [label="gini = 0.26\nsamples = 22301\nvalue = [18868, 3433]"] ;
15 -> 17 ;
18 [label="X[1] <= 3.5\ngini = 0.19\nsamples = 323590\nvalue = [289293, 34297]"] ;
2 -> 18 ;
19 [label="X[2] <= 0.5\ngini = 0.205\nsamples = 112591\nvalue = [99518, 13073]"] ;
18 -> 19 ;
20 [label="X[1] <= 2.5\ngini = 0.25\nsamples = 24070\nvalue = [20539, 3531]"] ;
19 -> 20 ;
21 [label="gini = 0.311\nsamples = 10314\nvalue = [8326, 1988]"] ;
20 -> 21 ;
22 [label="gini = 0.199\nsamples = 13756\nvalue = [12213, 1543]"] ;
20 -> 22 ;
23 [label="X[2] <= 1.5\ngini = 0.192\nsamples = 88521\nvalue = [78979, 9542]"] ;
19 -> 23 ;
24 [label="gini = 0.093\nsamples = 11129\nvalue = [10582, 547]"] ;
23 -> 24 ;
25 [label="gini = 0.205\nsamples = 77392\nvalue = [68397, 8995]"] ;
23 -> 25 ;
26 [label="X[2] <= 1.5\ngini = 0.181\nsamples = 210999\nvalue = [189775, 21224]"] ;
18 -> 26 ;
27 [label="X[2] <= 0.5\ngini = 0.162\nsamples = 74279\nvalue = [67696, 6583]"] ;
26 -> 27 ;
28 [label="gini = 0.183\nsamples = 55826\nvalue = [50149, 5677]"] ;
27 -> 28 ;
29 [label="gini = 0.093\nsamples = 18453\nvalue = [17547, 906]"] ;
27 -> 29 ;
30 [label="X[2] <= 7.5\ngini = 0.191\nsamples = 136720\nvalue = [122079, 14641]"] ;
26 -> 30 ;
31 [label="gini = 0.433\nsamples = 3893\nvalue = [2658, 1235]"] ;
30 -> 31 ;
32 [label="gini = 0.181\nsamples = 132827\nvalue = [119421, 13406]"] ;
30 -> 32 ;
33 [label="X[2] <= 15.5\ngini = 0.086\nsamples = 14295\nvalue = [13652, 643]"] ;
1 -> 33 ;
34 [label="X[2] <= 14.5\ngini = 0.055\nsamples = 9734\nvalue = [9457, 277]"] ;
33 -> 34 ;
35 [label="X[2] <= 12.5\ngini = 0.086\nsamples = 3261\nvalue = [3115, 146]"] ;
34 -> 35 ;
36 [label="X[1] <= 0.5\ngini = 0.063\nsamples = 1969\nvalue = [1905, 64]"] ;
35 -> 36 ;
37 [label="gini = 0.16\nsamples = 160\nvalue = [146, 14]"] ;
36 -> 37 ;
38 [label="gini = 0.054\nsamples = 1809\nvalue = [1759, 50]"] ;
36 -> 38 ;
39 [label="X[1] <= 3.5\ngini = 0.119\nsamples = 1292\nvalue = [1210, 82]"] ;
35 -> 39 ;
40 [label="gini = 0.161\nsamples = 511\nvalue = [466, 45]"] ;
39 -> 40 ;
41 [label="gini = 0.09\nsamples = 781\nvalue = [744, 37]"] ;
39 -> 41 ;
42 [label="X[1] <= 1.5\ngini = 0.04\nsamples = 6473\nvalue = [6342, 131]"] ;
34 -> 42 ;
43 [label="X[1] <= 0.5\ngini = 0.057\nsamples = 950\nvalue = [922, 28]"] ;
42 -> 43 ;
44 [label="gini = 0.033\nsamples = 362\nvalue = [356, 6]"] ;
43 -> 44 ;
45 [label="gini = 0.072\nsamples = 588\nvalue = [566, 22]"] ;
43 -> 45 ;
46 [label="X[1] <= 7.5\ngini = 0.037\nsamples = 5523\nvalue = [5420, 103]"] ;
42 -> 46 ;
47 [label="gini = 0.032\nsamples = 4202\nvalue = [4133, 69]"] ;
46 -> 47 ;
48 [label="gini = 0.05\nsamples = 1321\nvalue = [1287, 34]"] ;
46 -> 48 ;
49 [label="X[1] <= 8.5\ngini = 0.148\nsamples = 4561\nvalue = [4195, 366]"] ;
33 -> 49 ;
50 [label="X[1] <= 3.5\ngini = 0.142\nsamples = 4247\nvalue = [3920, 327]"] ;
49 -> 50 ;
51 [label="X[3] <= 1.5\ngini = 0.166\nsamples = 1999\nvalue = [1817, 182]"] ;
50 -> 51 ;
52 [label="gini = 0.255\nsamples = 187\nvalue = [159, 28]"] ;
51 -> 52 ;
53 [label="gini = 0.156\nsamples = 1812\nvalue = [1658, 154]"] ;
51 -> 53 ;
54 [label="X[0] <= 2.5\ngini = 0.121\nsamples = 2248\nvalue = [2103, 145]"] ;
50 -> 54 ;
55 [label="gini = 0.104\nsamples = 959\nvalue = [906, 53]"] ;
54 -> 55 ;
56 [label="gini = 0.133\nsamples = 1289\nvalue = [1197, 92]"] ;
54 -> 56 ;
57 [label="X[3] <= 4.5\ngini = 0.218\nsamples = 314\nvalue = [275, 39]"] ;
49 -> 57 ;
58 [label="X[0] <= 5.5\ngini = 0.311\nsamples = 114\nvalue = [92, 22]"] ;
57 -> 58 ;
59 [label="gini = 0.261\nsamples = 97\nvalue = [82, 15]"] ;
58 -> 59 ;
60 [label="gini = 0.484\nsamples = 17\nvalue = [10, 7]"] ;
58 -> 60 ;
61 [label="X[0] <= 4.5\ngini = 0.156\nsamples = 200\nvalue = [183, 17]"] ;
57 -> 61 ;
62 [label="gini = 0.124\nsamples = 151\nvalue = [141, 10]"] ;
61 -> 62 ;
63 [label="gini = 0.245\nsamples = 49\nvalue = [42, 7]"] ;
61 -> 63 ;
64 [label="X[1] <= 3.5\ngini = 0.243\nsamples = 325621\nvalue = [279451, 46170]"] ;
0 -> 64 [labeldistance=2.5, labelangle=-45, headlabel="False"] ;
65 [label="X[2] <= 0.5\ngini = 0.268\nsamples = 141546\nvalue = [119028, 22518]"] ;
64 -> 65 ;
66 [label="X[1] <= 2.5\ngini = 0.317\nsamples = 31990\nvalue = [25678, 6312]"] ;
65 -> 66 ;
67 [label="X[1] <= 1.5\ngini = 0.347\nsamples = 18524\nvalue = [14389, 4135]"] ;
66 -> 67 ;
68 [label="X[0] <= 3.5\ngini = 0.323\nsamples = 13168\nvalue = [10496, 2672]"] ;
67 -> 68 ;
69 [label="gini = 0.338\nsamples = 7985\nvalue = [6263, 1722]"] ;
68 -> 69 ;
70 [label="gini = 0.299\nsamples = 5183\nvalue = [4233, 950]"] ;
68 -> 70 ;
71 [label="X[0] <= 3.5\ngini = 0.397\nsamples = 5356\nvalue = [3893, 1463]"] ;
67 -> 71 ;
72 [label="gini = 0.418\nsamples = 3164\nvalue = [2221, 943]"] ;
71 -> 72 ;
73 [label="gini = 0.362\nsamples = 2192\nvalue = [1672, 520]"] ;
71 -> 73 ;
74 [label="X[0] <= 3.5\ngini = 0.271\nsamples = 13466\nvalue = [11289, 2177]"] ;
66 -> 74 ;
75 [label="X[0] <= 1.5\ngini = 0.289\nsamples = 7799\nvalue = [6435, 1364]"] ;
74 -> 75 ;
76 [label="gini = 0.268\nsamples = 3763\nvalue = [3162, 601]"] ;
75 -> 76 ;
77 [label="gini = 0.307\nsamples = 4036\nvalue = [3273, 763]"] ;
75 -> 77 ;
78 [label="X[3] <= 3.5\ngini = 0.246\nsamples = 5667\nvalue = [4854, 813]"] ;
74 -> 78 ;
79 [label="gini = 0.215\nsamples = 1510\nvalue = [1325, 185]"] ;
78 -> 79 ;
80 [label="gini = 0.256\nsamples = 4157\nvalue = [3529, 628]"] ;
78 -> 80 ;
81 [label="X[2] <= 1.5\ngini = 0.252\nsamples = 109556\nvalue = [93350, 16206]"] ;
65 -> 81 ;
82 [label="X[0] <= 3.5\ngini = 0.088\nsamples = 12957\nvalue = [12357, 600]"] ;
81 -> 82 ;
83 [label="X[1] <= 0.5\ngini = 0.106\nsamples = 7504\nvalue = [7081, 423]"] ;
82 -> 83 ;
84 [label="gini = 0.066\nsamples = 1644\nvalue = [1588, 56]"] ;
83 -> 84 ;
85 [label="gini = 0.117\nsamples = 5860\nvalue = [5493, 367]"] ;
83 -> 85 ;
86 [label="X[1] <= 1.5\ngini = 0.063\nsamples = 5453\nvalue = [5276, 177]"] ;
82 -> 86 ;
87 [label="gini = 0.074\nsamples = 2120\nvalue = [2038, 82]"] ;
86 -> 87 ;
88 [label="gini = 0.055\nsamples = 3333\nvalue = [3238, 95]"] ;
86 -> 88 ;
89 [label="X[2] <= 5.5\ngini = 0.271\nsamples = 96599\nvalue = [80993, 15606]"] ;
81 -> 89 ;
90 [label="X[2] <= 4.5\ngini = 0.497\nsamples = 1863\nvalue = [1005, 858]"] ;
89 -> 90 ;
91 [label="gini = 0.499\nsamples = 1652\nvalue = [861, 791]"] ;
90 -> 91 ;
92 [label="gini = 0.433\nsamples = 211\nvalue = [144, 67]"] ;
90 -> 92 ;
93 [label="X[2] <= 11.5\ngini = 0.263\nsamples = 94736\nvalue = [79988, 14748]"] ;
89 -> 93 ;
94 [label="gini = 0.269\nsamples = 90634\nvalue = [76144, 14490]"] ;
93 -> 94 ;
95 [label="gini = 0.118\nsamples = 4102\nvalue = [3844, 258]"] ;
93 -> 95 ;
96 [label="X[2] <= 11.5\ngini = 0.224\nsamples = 184075\nvalue = [160423, 23652]"] ;
64 -> 96 ;
97 [label="X[1] <= 8.5\ngini = 0.227\nsamples = 178181\nvalue = [154885, 23296]"] ;
96 -> 97 ;
98 [label="X[2] <= 0.5\ngini = 0.22\nsamples = 151444\nvalue = [132436, 19008]"] ;
97 -> 98 ;
99 [label="X[1] <= 7.5\ngini = 0.274\nsamples = 30955\nvalue = [25881, 5074]"] ;
98 -> 99 ;
100 [label="gini = 0.257\nsamples = 27601\nvalue = [23423, 4178]"] ;
99 -> 100 ;
101 [label="gini = 0.392\nsamples = 3354\nvalue = [2458, 896]"] ;
99 -> 101 ;
102 [label="X[2] <= 1.5\ngini = 0.205\nsamples = 120489\nvalue = [106555, 13934]"] ;
98 -> 102 ;
103 [label="gini = 0.11\nsamples = 11399\nvalue = [10733, 666]"] ;
102 -> 103 ;
104 [label="gini = 0.214\nsamples = 109090\nvalue = [95822, 13268]"] ;
102 -> 104 ;
105 [label="X[2] <= 1.5\ngini = 0.269\nsamples = 26737\nvalue = [22449, 4288]"] ;
97 -> 105 ;
106 [label="X[2] <= 0.5\ngini = 0.185\nsamples = 16252\nvalue = [14573, 1679]"] ;
105 -> 106 ;
107 [label="gini = 0.202\nsamples = 13523\nvalue = [11980, 1543]"] ;
106 -> 107 ;
108 [label="gini = 0.095\nsamples = 2729\nvalue = [2593, 136]"] ;
106 -> 108 ;
109 [label="X[2] <= 4.5\ngini = 0.374\nsamples = 10485\nvalue = [7876, 2609]"] ;
105 -> 109 ;
110 [label="gini = 0.494\nsamples = 209\nvalue = [93, 116]"] ;
109 -> 110 ;
111 [label="gini = 0.367\nsamples = 10276\nvalue = [7783, 2493]"] ;
109 -> 111 ;
112 [label="X[2] <= 15.5\ngini = 0.114\nsamples = 5894\nvalue = [5538, 356]"] ;
96 -> 112 ;
113 [label="X[2] <= 14.5\ngini = 0.048\nsamples = 4129\nvalue = [4027, 102]"] ;
112 -> 113 ;
114 [label="X[1] <= 6.5\ngini = 0.127\nsamples = 1027\nvalue = [957, 70]"] ;
113 -> 114 ;
115 [label="gini = 0.086\nsamples = 420\nvalue = [401, 19]"] ;
114 -> 115 ;
116 [label="gini = 0.154\nsamples = 607\nvalue = [556, 51]"] ;
114 -> 116 ;
117 [label="X[1] <= 6.5\ngini = 0.02\nsamples = 3102\nvalue = [3070, 32]"] ;
113 -> 117 ;
118 [label="gini = 0.031\nsamples = 1094\nvalue = [1077, 17]"] ;
117 -> 118 ;
119 [label="gini = 0.015\nsamples = 2008\nvalue = [1993, 15]"] ;
117 -> 119 ;
120 [label="X[1] <= 6.5\ngini = 0.246\nsamples = 1765\nvalue = [1511, 254]"] ;
112 -> 120 ;
121 [label="X[1] <= 4.5\ngini = 0.186\nsamples = 769\nvalue = [689, 80]"] ;
120 -> 121 ;
122 [label="gini = 0.24\nsamples = 387\nvalue = [333, 54]"] ;
121 -> 122 ;
123 [label="gini = 0.127\nsamples = 382\nvalue = [356, 26]"] ;
121 -> 123 ;
124 [label="X[0] <= 5.5\ngini = 0.288\nsamples = 996\nvalue = [822, 174]"] ;
120 -> 124 ;
125 [label="gini = 0.301\nsamples = 856\nvalue = [698, 158]"] ;
124 -> 125 ;
126 [label="gini = 0.202\nsamples = 140\nvalue = [124, 16]"] ;
124 -> 126 ;
}